package model

func Predict(input [6]float32) float32 {
	var var0 float32
	if input[0] > 18.500000000000004 {
		if input[0] > 320.50000000000006 {
			if input[0] > 693.5000000000001 {
				if input[0] > 2600.0000000000005 {
					var0 = 21259.95160848049
				} else {
					if input[3] > 6.500000000000001 {
						if input[0] > 1442.5000000000002 {
							var0 = 16661.634004505308
						} else {
							if input[2] > 4.500000000000001 {
								if input[5] > 9.500000000000002 {
									var0 = 16563.76984800464
								} else {
									var0 = 15001.950527810355
								}
							} else {
								var0 = 16042.243085076094
							}
						}
					} else {
						if input[4] > 3.5000000000000004 {
							var0 = 14923.739802605796
						} else {
							if input[0] > 1105.0000000000002 {
								var0 = 14631.203623373069
							} else {
								var0 = 12873.709923079421
							}
						}
					}
				}
			} else {
				if input[4] > 3.5000000000000004 {
					if input[0] > 389.50000000000006 {
						if input[0] > 601.5000000000001 {
							var0 = 14527.707124973545
						} else {
							var0 = 13941.572666253283
						}
					} else {
						var0 = 13261.722566088183
					}
				} else {
					if input[0] > 500.50000000000006 {
						var0 = 13469.435758822838
					} else {
						if input[5] > 3.5000000000000004 {
							var0 = 13101.409277497569
						} else {
							var0 = 12518.986311416604
						}
					}
				}
			}
		} else {
			if input[0] > 154.50000000000003 {
				if input[4] > 3.5000000000000004 {
					if input[0] > 220.50000000000003 {
						var0 = 13047.16293093259
					} else {
						var0 = 12085.605366474127
					}
				} else {
					if input[0] > 220.50000000000003 {
						if input[5] > 2.5000000000000004 {
							var0 = 12430.723297449022
						} else {
							var0 = 12067.830548389584
						}
					} else {
						var0 = 11857.767238728826
					}
				}
			} else {
				if input[0] > 79.50000000000001 {
					if input[0] > 80.50000000000001 {
						if input[0] > 124.50000000000001 {
							if input[2] > 1.5000000000000002 {
								var0 = 11661.798705462928
							} else {
								var0 = 12778.434343108049
							}
						} else {
							var0 = 11464.07973297422
						}
					} else {
						if input[4] > 0.000000000000000000000000000000000010000000180025095 {
							if input[3] > 2.5000000000000004 {
								var0 = 11441.326836009484
							} else {
								if input[2] > 2.5000000000000004 {
									var0 = 11401.675574300802
								} else {
									if input[3] > 1.5000000000000002 {
										var0 = 16753.031795797382
									} else {
										var0 = 11412.142193807638
									}
								}
							}
						} else {
							var0 = 11351.587612030937
						}
					}
				} else {
					var0 = 11282.617969019495
				}
			}
		}
	} else {
		if input[0] > 15.500000000000002 {
			var0 = 202277.2520631246
		} else {
			if input[5] > 0.000000000000000000000000000000000010000000180025095 {
				var0 = 11585.773790690775
			} else {
				var0 = 17743.042154134786
			}
		}
	}
	var var1 float32
	if input[0] > 18.500000000000004 {
		if input[0] > 320.50000000000006 {
			if input[0] > 693.5000000000001 {
				if input[0] > 2600.0000000000005 {
					var1 = 8094.0049023437505
				} else {
					if input[3] > 6.500000000000001 {
						if input[0] > 1442.5000000000002 {
							var1 = 3955.5189970128677
						} else {
							if input[2] > 4.500000000000001 {
								if input[5] > 9.500000000000002 {
									var1 = 3867.4411221590913
								} else {
									var1 = 2461.803932308533
								}
							} else {
								var1 = 3398.0673000529664
							}
						}
					} else {
						if input[4] > 3.5000000000000004 {
							var1 = 2391.4142763773602
						} else {
							if input[0] > 1105.0000000000002 {
								var1 = 2128.131650390625
							} else {
								var1 = 546.3873568428888
							}
						}
					}
				}
			} else {
				if input[4] > 3.5000000000000004 {
					if input[0] > 406.00000000000006 {
						var1 = 1634.9346551551582
					} else {
						var1 = 1002.0457308088031
					}
				} else {
					if input[0] > 500.50000000000006 {
						if input[4] > 2.5000000000000004 {
							var1 = 1623.321930563039
						} else {
							var1 = 818.9665119074974
						}
					} else {
						if input[5] > 3.5000000000000004 {
							var1 = 751.3167514465667
						} else {
							var1 = 227.13608391316177
						}
					}
				}
			}
		} else {
			if input[0] > 154.50000000000003 {
				if input[4] > 3.5000000000000004 {
					if input[0] > 220.50000000000003 {
						var1 = 702.4950517590061
					} else {
						var1 = -162.9067816621514
					}
				} else {
					if input[0] > 218.50000000000003 {
						if input[5] > 2.5000000000000004 {
							var1 = 133.86757540529874
						} else {
							var1 = -185.19698409318926
						}
					} else {
						var1 = -378.3401421046417
					}
				}
			} else {
				if input[0] > 79.50000000000001 {
					if input[0] > 80.50000000000001 {
						if input[5] > 1.5000000000000002 {
							if input[2] > 1.5000000000000002 {
								var1 = -553.337086041398
							} else {
								var1 = 289.58979617387826
							}
						} else {
							var1 = -731.4903056443902
						}
					} else {
						if input[4] > 0.000000000000000000000000000000000010000000180025095 {
							if input[3] > 2.5000000000000004 {
								var1 = -742.7574301808152
							} else {
								if input[2] > 2.5000000000000004 {
									var1 = -778.443578125
								} else {
									if input[3] > 1.5000000000000002 {
										var1 = 4037.776845157623
									} else {
										var1 = -769.023600769043
									}
								}
							}
						} else {
							var1 = -823.5227249500364
						}
					}
				} else {
					var1 = -885.5954106149504
				}
			}
		}
	} else {
		if input[0] > 15.500000000000002 {
			var1 = 171009.58722222224
		} else {
			if input[0] > 10.500000000000002 {
				var1 = 5209.656360897776
			} else {
				var1 = -341.13599883288873
			}
		}
	}
	var var2 float32
	if input[0] > 18.500000000000004 {
		if input[0] > 320.50000000000006 {
			if input[0] > 693.5000000000001 {
				if input[0] > 2600.0000000000005 {
					var2 = 7284.604326171875
				} else {
					if input[3] > 6.500000000000001 {
						if input[5] > 1.5000000000000002 {
							if input[0] > 1442.5000000000002 {
								var2 = 3888.191344401042
							} else {
								var2 = 2581.084117835338
							}
						} else {
							var2 = 1392.742939758301
						}
					} else {
						if input[4] > 3.5000000000000004 {
							var2 = 2152.2728491689645
						} else {
							if input[0] > 1105.0000000000002 {
								var2 = 1915.3184521484375
							} else {
								var2 = 491.7485941569011
							}
						}
					}
				}
			} else {
				if input[4] > 3.5000000000000004 {
					if input[0] > 389.50000000000006 {
						if input[0] > 601.5000000000001 {
							if input[0] > 649.0000000000001 {
								var2 = 1371.9358208007814
							} else {
								var2 = 2495.93586303711
							}
						} else {
							var2 = 1352.594357185783
						}
					} else {
						var2 = 795.3941664142374
					}
				} else {
					if input[0] > 476.00000000000006 {
						if input[2] > 3.5000000000000004 {
							var2 = 1104.8781765937806
						} else {
							var2 = 45.165687238253085
						}
					} else {
						var2 = 304.80745349238265
					}
				}
			}
		} else {
			if input[0] > 149.50000000000003 {
				if input[4] > 3.5000000000000004 {
					if input[0] > 220.50000000000003 {
						var2 = 632.2455364245761
					} else {
						var2 = -152.85641074732732
					}
				} else {
					if input[0] > 216.00000000000003 {
						if input[5] > 2.5000000000000004 {
							var2 = 102.95600070099334
						} else {
							var2 = -164.7601476117727
						}
					} else {
						var2 = -353.2442697329019
					}
				}
			} else {
				if input[4] > 0.000000000000000000000000000000000010000000180025095 {
					if input[0] > 79.50000000000001 {
						if input[0] > 80.50000000000001 {
							if input[2] > 1.5000000000000002 {
								var2 = -582.0500563275954
							} else {
								var2 = 108.33623455416772
							}
						} else {
							if input[3] > 2.5000000000000004 {
								var2 = -668.4816761134826
							} else {
								if input[2] > 2.5000000000000004 {
									var2 = -700.5991992187501
								} else {
									if input[3] > 1.5000000000000002 {
										var2 = 3633.9992578125
									} else {
										var2 = -692.1212341308594
									}
								}
							}
						}
					} else {
						var2 = -718.5347971630147
					}
				} else {
					if input[0] > 74.50000000000001 {
						var2 = -720.3946556788932
					} else {
						var2 = -828.4778523783576
					}
				}
			}
		}
	} else {
		if input[0] > 15.500000000000002 {
			var2 = 153908.6171527778
		} else {
			if input[5] > 0.000000000000000000000000000000000010000000180025095 {
				var2 = -732.8302090115018
			} else {
				var2 = 4537.917254638672
			}
		}
	}
	var var3 float32
	if input[0] > 18.500000000000004 {
		if input[0] > 320.50000000000006 {
			if input[0] > 693.5000000000001 {
				if input[0] > 2600.0000000000005 {
					var3 = 6556.143828125
				} else {
					if input[3] > 6.500000000000001 {
						if input[5] > 1.5000000000000002 {
							if input[0] > 1442.5000000000002 {
								var3 = 3499.372264811198
							} else {
								var3 = 2322.975647417204
							}
						} else {
							var3 = 1253.4685897827148
						}
					} else {
						if input[0] > 1322.0000000000002 {
							var3 = 2570.803188994437
						} else {
							if input[4] > 3.5000000000000004 {
								var3 = 1849.7270824609802
							} else {
								var3 = 288.4757351962003
							}
						}
					}
				}
			} else {
				if input[4] > 3.5000000000000004 {
					if input[0] > 381.50000000000006 {
						if input[2] > 4.500000000000001 {
							var3 = 1129.7357566662872
						} else {
							var3 = 1508.41200238244
						}
					} else {
						var3 = 707.9375597990012
					}
				} else {
					if input[0] > 500.50000000000006 {
						var3 = 882.9573667709437
					} else {
						if input[5] > 3.5000000000000004 {
							if input[0] > 476.00000000000006 {
								var3 = 1362.9271378055696
							} else {
								var3 = 484.1400309126898
							}
						} else {
							var3 = 171.58640484705765
						}
					}
				}
			}
		} else {
			if input[0] > 185.50000000000003 {
				if input[4] > 3.5000000000000004 {
					var3 = 493.9104851679714
				} else {
					if input[0] > 254.50000000000003 {
						var3 = 32.91388183462209
					} else {
						var3 = -207.1014367818624
					}
				}
			} else {
				if input[0] > 79.50000000000001 {
					if input[0] > 80.50000000000001 {
						if input[0] > 124.50000000000001 {
							if input[5] > 1.5000000000000002 {
								if input[2] > 1.5000000000000002 {
									var3 = -295.62835461109665
								} else {
									var3 = 566.8008991109914
								}
							} else {
								var3 = -497.86614074385574
							}
						} else {
							var3 = -591.132747746561
						}
					} else {
						if input[4] > 0.000000000000000000000000000000000010000000180025095 {
							if input[3] > 2.5000000000000004 {
								var3 = -601.6335281843992
							} else {
								if input[5] > 1.5000000000000002 {
									var3 = -1222.8453152901786
								} else {
									if input[5] > 0.000000000000000000000000000000000010000000180025095 {
										if input[2] > 2.5000000000000004 {
											var3 = -606.15703125
										} else {
											var3 = 4524.292837379092
										}
									} else {
										var3 = -1362.7134513608871
									}
								}
							}
						} else {
							var3 = -669.1309890155644
						}
					}
				} else {
					var3 = -717.3574297766452
				}
			}
		}
	} else {
		if input[0] > 15.500000000000002 {
			var3 = 138517.7604166667
		} else {
			if input[0] > 10.500000000000002 {
				var3 = 4324.233623543432
			} else {
				var3 = -426.5716223739996
			}
		}
	}
	var var4 float32
	if input[0] > 18.500000000000004 {
		if input[0] > 389.50000000000006 {
			if input[0] > 693.5000000000001 {
				if input[0] > 2600.0000000000005 {
					var4 = 5900.529433593751
				} else {
					if input[3] > 6.500000000000001 {
						if input[5] > 1.5000000000000002 {
							if input[0] > 1442.5000000000002 {
								var4 = 3149.4350032552084
							} else {
								var4 = 2090.678065028153
							}
						} else {
							var4 = 1128.1217310587565
						}
					} else {
						if input[0] > 1143.0000000000002 {
							var4 = 2186.2433765229725
						} else {
							if input[2] > 3.5000000000000004 {
								var4 = 1431.5987657301498
							} else {
								var4 = -273.4163928222656
							}
						}
					}
				}
			} else {
				if input[4] > 2.5000000000000004 {
					if input[5] > 4.500000000000001 {
						var4 = 1465.6546964423603
					} else {
						var4 = 1037.4395600264368
					}
				} else {
					if input[5] > 2.5000000000000004 {
						if input[0] > 476.00000000000006 {
							var4 = 882.4835300164474
						} else {
							var4 = 199.1216941508841
						}
					} else {
						var4 = 76.69092631369645
					}
				}
			}
		} else {
			if input[0] > 196.50000000000003 {
				if input[4] > 3.5000000000000004 {
					var4 = 526.7074320484986
				} else {
					if input[0] > 254.50000000000003 {
						var4 = 73.11792909953719
					} else {
						var4 = -171.4528928526793
					}
				}
			} else {
				if input[4] > 0.000000000000000000000000000000000010000000180025095 {
					if input[0] > 79.50000000000001 {
						if input[0] > 80.50000000000001 {
							if input[0] > 124.50000000000001 {
								if input[2] > 1.5000000000000002 {
									var4 = -315.8490990311759
								} else {
									var4 = 498.3557348632812
								}
							} else {
								var4 = -496.62282425139165
							}
						} else {
							if input[1] > 3.5000000000000004 {
								if input[3] > 2.5000000000000004 {
									var4 = -606.8272283380683
								} else {
									var4 = -1744.2433557581019
								}
							} else {
								if input[2] > 2.5000000000000004 {
									var4 = -519.3001663435751
								} else {
									if input[5] > 1.5000000000000002 {
										var4 = -1084.3903191928207
									} else {
										if input[3] > 2.5000000000000004 {
											var4 = -577.1969260475852
										} else {
											if input[5] > 0.000000000000000000000000000000000010000000180025095 {
												var4 = 5460.638214730526
											} else {
												var4 = -1374.2356677827383
											}
										}
									}
								}
							}
						}
					} else {
						var4 = -574.9455867785244
					}
				} else {
					var4 = -644.4263770058596
				}
			}
		}
	} else {
		if input[0] > 15.500000000000002 {
			var4 = 124665.99319444445
		} else {
			if input[1] > 0.000000000000000000000000000000000010000000180025095 {
				var4 = -2226.2684130859375
			} else {
				if input[0] > 10.500000000000002 {
					var4 = 5785.341253396739
				} else {
					var4 = -227.17714556525735
				}
			}
		}
	}
	var var5 float32
	if input[0] > 18.500000000000004 {
		if input[0] > 320.50000000000006 {
			if input[0] > 601.5000000000001 {
				if input[0] > 2600.0000000000005 {
					var5 = 5310.47671875
				} else {
					if input[4] > 3.5000000000000004 {
						if input[5] > 9.500000000000002 {
							var5 = 2594.771898289731
						} else {
							if input[3] > 8.500000000000002 {
								if input[0] > 1203.5000000000002 {
									var5 = 3002.8215376420458
								} else {
									var5 = 1890.3258831626492
								}
							} else {
								if input[2] > 4.500000000000001 {
									var5 = 1278.7323593906074
								} else {
									if input[5] > 3.5000000000000004 {
										if input[0] > 784.0000000000001 {
											var5 = 1626.1944780622212
										} else {
											var5 = 2672.19478828862
										}
									} else {
										var5 = 1198.6539624023437
									}
								}
							}
						}
					} else {
						if input[0] > 1322.0000000000002 {
							var5 = 2310.6109802246096
						} else {
							if input[3] > 6.500000000000001 {
								var5 = 1652.9266929626465
							} else {
								if input[5] > 2.5000000000000004 {
									var5 = 1001.9632857885116
								} else {
									var5 = -56.50249179271941
								}
							}
						}
					}
				}
			} else {
				if input[4] > 2.5000000000000004 {
					if input[0] > 389.50000000000006 {
						var5 = 939.0673051754766
					} else {
						var5 = 444.8128748502768
					}
				} else {
					var5 = 209.18806454389153
				}
			}
		} else {
			if input[0] > 133.50000000000003 {
				if input[5] > 2.5000000000000004 {
					if input[4] > 3.5000000000000004 {
						var5 = 504.279370899407
					} else {
						var5 = 28.689138392472376
					}
				} else {
					if input[0] > 254.50000000000003 {
						var5 = 22.419550837681534
					} else {
						var5 = -282.65755730944346
					}
				}
			} else {
				if input[4] > 0.000000000000000000000000000000000010000000180025095 {
					if input[0] > 79.50000000000001 {
						if input[0] > 80.50000000000001 {
							if input[2] > 1.5000000000000002 {
								var5 = -446.87480735197624
							} else {
								var5 = 165.40570111191064
							}
						} else {
							if input[1] > 3.5000000000000004 {
								var5 = -1006.7980273437502
							} else {
								if input[2] > 2.5000000000000004 {
									var5 = -467.3701576346782
								} else {
									if input[3] > 1.5000000000000002 {
										if input[3] > 2.5000000000000004 {
											var5 = -461.517628518129
										} else {
											var5 = 3806.18648814006
										}
									} else {
										var5 = -1007.5688151041667
									}
								}
							}
						}
					} else {
						var5 = -517.451011367185
					}
				} else {
					var5 = -585.8732010568139
				}
			}
		}
	} else {
		if input[0] > 15.500000000000002 {
			var5 = 112199.38430555556
		} else {
			if input[5] > 0.000000000000000000000000000000000010000000180025095 {
				var5 = -798.6249821980795
			} else {
				var5 = 3456.8620056152345
			}
		}
	}
	var var6 float32
	if input[0] > 18.500000000000004 {
		if input[0] > 320.50000000000006 {
			if input[0] > 693.5000000000001 {
				if input[0] > 2600.0000000000005 {
					var6 = 4779.428828125
				} else {
					if input[3] > 6.500000000000001 {
						if input[5] > 1.5000000000000002 {
							if input[0] > 1442.5000000000002 {
								var6 = 2579.5544083658856
							} else {
								var6 = 1707.6255194235976
							}
						} else {
							var6 = 844.5377797444662
						}
					} else {
						if input[0] > 1143.0000000000002 {
							var6 = 1782.6091233026416
						} else {
							if input[2] > 3.5000000000000004 {
								var6 = 1153.4294428154974
							} else {
								var6 = -240.42451293945317
							}
						}
					}
				}
			} else {
				if input[4] > 3.5000000000000004 {
					if input[0] > 406.00000000000006 {
						var6 = 976.0381620229402
					} else {
						var6 = 591.1842461994717
					}
				} else {
					if input[0] > 500.50000000000006 {
						var6 = 671.1551327893964
					} else {
						if input[5] > 3.5000000000000004 {
							if input[2] > 4.500000000000001 {
								var6 = 140.1388966369629
							} else {
								var6 = 756.8499614042395
							}
						} else {
							var6 = 97.7906712794408
						}
					}
				}
			}
		} else {
			if input[0] > 196.50000000000003 {
				if input[4] > 3.5000000000000004 {
					if input[2] > 4.500000000000001 {
						var6 = -104.96837303032311
					} else {
						var6 = 484.1007659103697
					}
				} else {
					var6 = -76.36537838836944
				}
			} else {
				if input[0] > 76.50000000000001 {
					if input[0] > 80.50000000000001 {
						if input[5] > 1.5000000000000002 {
							var6 = -263.33825487770366
						} else {
							var6 = -427.0179592839557
						}
					} else {
						if input[4] > 0.000000000000000000000000000000000010000000180025095 {
							if input[1] > 0.000000000000000000000000000000000010000000180025095 {
								var6 = -655.9821702526463
							} else {
								if input[0] > 79.50000000000001 {
									if input[2] > 2.5000000000000004 {
										var6 = -420.633143274108
									} else {
										if input[5] > 1.5000000000000002 {
											var6 = -1152.0784735317889
										} else {
											if input[5] > 0.000000000000000000000000000000000010000000180025095 {
												if input[3] > 2.5000000000000004 {
													var6 = -471.18042543472785
												} else {
													var6 = 4638.602128623189
												}
											} else {
												var6 = -1353.399562669837
											}
										}
									}
								} else {
									var6 = -401.3418032079711
								}
							}
						} else {
							var6 = -463.5665934922
						}
					}
				} else {
					var6 = -530.5590028845701
				}
			}
		}
	} else {
		if input[0] > 15.500000000000002 {
			var6 = 100979.43805555557
		} else {
			if input[1] > 0.000000000000000000000000000000000010000000180025095 {
				var6 = -2179.108298339844
			} else {
				if input[0] > 10.500000000000002 {
					var6 = 4925.878838315218
				} else {
					var6 = -287.30674330767465
				}
			}
		}
	}
	var var7 float32
	if input[0] > 18.500000000000004 {
		if input[0] > 254.50000000000003 {
			if input[0] > 601.5000000000001 {
				if input[0] > 2600.0000000000005 {
					var7 = 4301.486123046875
				} else {
					if input[3] > 8.500000000000002 {
						if input[0] > 1442.5000000000002 {
							var7 = 2948.8087927246097
						} else {
							var7 = 1549.4560318568967
						}
					} else {
						if input[4] > 3.5000000000000004 {
							if input[5] > 9.500000000000002 {
								var7 = 2280.4073506673176
							} else {
								if input[2] > 4.500000000000001 {
									if input[5] > 3.5000000000000004 {
										var7 = 804.7371243336996
									} else {
										var7 = 1457.0017994590428
									}
								} else {
									if input[1] > 0.000000000000000000000000000000000010000000180025095 {
										var7 = 2509.59959765625
									} else {
										if input[0] > 752.5000000000001 {
											var7 = 903.3326836480036
										} else {
											var7 = 1806.981240234375
										}
									}
								}
							}
						} else {
							var7 = 729.5422938620397
						}
					}
				}
			} else {
				if input[4] > 3.5000000000000004 {
					if input[0] > 381.50000000000006 {
						var7 = 789.8148001344636
					} else {
						if input[2] > 5.500000000000001 {
							var7 = -332.53651529947916
						} else {
							var7 = 515.2138533571933
						}
					}
				} else {
					if input[5] > 3.5000000000000004 {
						var7 = 457.54433505084063
					} else {
						if input[1] > 12.500000000000002 {
							var7 = 903.6880001183713
						} else {
							var7 = 48.69576330184937
						}
					}
				}
			}
		} else {
			if input[0] > 76.50000000000001 {
				if input[5] > 2.5000000000000004 {
					var7 = 15.522035210690966
				} else {
					if input[0] > 80.50000000000001 {
						if input[0] > 123.50000000000001 {
							var7 = -239.2312998177091
						} else {
							var7 = -392.1757152847797
						}
					} else {
						if input[4] > 0.000000000000000000000000000000000010000000180025095 {
							if input[1] > 0.000000000000000000000000000000000010000000180025095 {
								var7 = -590.3839573029549
							} else {
								if input[0] > 79.50000000000001 {
									if input[3] > 1.5000000000000002 {
										if input[3] > 2.5000000000000004 {
											var7 = -346.8931111335755
										} else {
											if input[5] > 1.5000000000000002 {
												var7 = -1330.4968187415082
											} else {
												var7 = 3290.114233114553
											}
										}
									} else {
										var7 = -840.9729303774626
									}
								} else {
									var7 = -361.20761617789594
								}
							}
						} else {
							var7 = -417.209921498069
						}
					}
				}
			} else {
				var7 = -477.5030966786976
			}
		}
	} else {
		if input[1] > 0.000000000000000000000000000000000010000000180025095 {
			var7 = -48497.99632953845
		} else {
			if input[0] > 15.500000000000002 {
				var7 = 218272.85347222222
			} else {
				if input[5] > 0.000000000000000000000000000000000010000000180025095 {
					var7 = -771.5523760114397
				} else {
					var7 = 4168.139727313702
				}
			}
		}
	}
	var var8 float32
	if input[0] > 18.500000000000004 {
		if input[0] > 389.50000000000006 {
			if input[0] > 703.5000000000001 {
				if input[0] > 2600.0000000000005 {
					var8 = 3871.337490234375
				} else {
					if input[0] > 752.5000000000001 {
						if input[0] > 870.0000000000001 {
							if input[4] > 4.500000000000001 {
								if input[5] > 9.500000000000002 {
									var8 = 2853.4102058105473
								} else {
									if input[0] > 1375.5000000000002 {
										var8 = 2323.279412841797
									} else {
										var8 = 1188.6415611234486
									}
								}
							} else {
								var8 = 875.1717701939175
							}
						} else {
							if input[5] > 4.500000000000001 {
								var8 = -284.80843860257056
							} else {
								var8 = 1197.7519580078126
							}
						}
					} else {
						if input[4] > 3.5000000000000004 {
							var8 = 2092.7981539542216
						} else {
							var8 = 981.8545310280541
						}
					}
				}
			} else {
				if input[4] > 2.5000000000000004 {
					if input[2] > 4.500000000000001 {
						var8 = 623.6576850377596
					} else {
						if input[0] > 565.5000000000001 {
							var8 = 1399.9481609541117
						} else {
							var8 = 740.6232550995983
						}
					}
				} else {
					var8 = 214.2768419876736
				}
			}
		} else {
			if input[0] > 196.50000000000003 {
				if input[4] > 3.5000000000000004 {
					var8 = 357.48477872917806
				} else {
					var8 = -38.01500425440852
				}
			} else {
				if input[4] > 0.000000000000000000000000000000000010000000180025095 {
					if input[0] > 79.50000000000001 {
						if input[0] > 80.50000000000001 {
							if input[4] > 1.5000000000000002 {
								var8 = -143.6430512986646
							} else {
								if input[2] > 1.5000000000000002 {
									var8 = -321.05238786373343
								} else {
									var8 = 248.10612678527832
								}
							}
						} else {
							if input[1] > 3.5000000000000004 {
								if input[3] > 2.5000000000000004 {
									var8 = -320.82810576467807
								} else {
									var8 = -1344.502572744864
								}
							} else {
								if input[5] > 0.000000000000000000000000000000000010000000180025095 {
									if input[3] > 1.5000000000000002 {
										if input[3] > 2.5000000000000004 {
											var8 = -294.83190574646
										} else {
											if input[5] > 1.5000000000000002 {
												var8 = -1197.4471642535666
											} else {
												var8 = 4327.9887513118
											}
										}
									} else {
										var8 = -900.889323023746
									}
								} else {
									var8 = -1175.263756202929
								}
							}
						}
					} else {
						var8 = -365.80748268937344
					}
				} else {
					var8 = -427.8516765889702
				}
			}
		}
	} else {
		if input[1] > 0.000000000000000000000000000000000010000000180025095 {
			var8 = -43648.19653577303
		} else {
			if input[0] > 15.500000000000002 {
				var8 = 196445.57824074075
			} else {
				if input[0] > 10.500000000000002 {
					var8 = 4091.645673403533
				} else {
					var8 = -370.2913768095129
				}
			}
		}
	}
	var var9 float32
	if input[0] > 18.500000000000004 {
		if input[0] > 254.50000000000003 {
			if input[0] > 601.5000000000001 {
				if input[0] > 2600.0000000000005 {
					var9 = 3484.2035693359376
				} else {
					if input[2] > 0.000000000000000000000000000000000010000000180025095 {
						if input[2] > 9.500000000000002 {
							var9 = 2151.94669030231
						} else {
							if input[4] > 3.5000000000000004 {
								if input[5] > 9.500000000000002 {
									var9 = 1739.1527732447576
								} else {
									if input[2] > 4.500000000000001 {
										if input[5] > 3.5000000000000004 {
											if input[1] > 2.5000000000000004 {
												var9 = 1427.90993359375
											} else {
												if input[0] > 870.0000000000001 {
													var9 = 932.0270829618647
												} else {
													if input[5] > 4.500000000000001 {
														var9 = -159.79533796037947
													} else {
														if input[3] > 7.500000000000001 {
															var9 = 239.50640190972223
														} else {
															var9 = 1437.754868861607
														}
													}
												}
											}
										} else {
											if input[0] > 998.5000000000001 {
												var9 = 668.4652901785715
											} else {
												var9 = 1495.3895761986303
											}
										}
									} else {
										if input[5] > 3.5000000000000004 {
											if input[3] > 7.500000000000001 {
												var9 = 959.860018643466
											} else {
												var9 = 1867.8221647803466
											}
										} else {
											var9 = 662.281650390625
										}
									}
								}
							} else {
								if input[2] > 4.500000000000001 {
									var9 = 140.02699628557477
								} else {
									if input[0] > 870.0000000000001 {
										var9 = 1773.4577195739746
									} else {
										var9 = 761.4370018935786
									}
								}
							}
						}
					} else {
						var9 = 32.537879180908206
					}
				}
			} else {
				if input[4] > 2.5000000000000004 {
					if input[0] > 381.50000000000006 {
						var9 = 628.517631867758
					} else {
						var9 = 284.69308266401293
					}
				} else {
					if input[3] > 4.500000000000001 {
						if input[4] > 0.000000000000000000000000000000000010000000180025095 {
							var9 = 194.8689300336336
						} else {
							var9 = 785.9025485992432
						}
					} else {
						var9 = -31.39814894077195
					}
				}
			}
		} else {
			if input[4] > 0.000000000000000000000000000000000010000000180025095 {
				if input[0] > 133.50000000000003 {
					if input[5] > 2.5000000000000004 {
						var9 = 53.95247420268547
					} else {
						var9 = -171.13552946060318
					}
				} else {
					var9 = -266.672249711012
				}
			} else {
				if input[0] > 98.50000000000001 {
					var9 = -286.56305944816614
				} else {
					var9 = -399.27813265616436
				}
			}
		}
	} else {
		if input[1] > 2.5000000000000004 {
			var9 = -43228.58662946429
		} else {
			if input[0] > 15.500000000000002 {
				var9 = 176801.02777777778
			} else {
				if input[0] > 10.500000000000002 {
					var9 = 3869.927184311225
				} else {
					var9 = -333.2622903262868
				}
			}
		}
	}
	var var10 float32
	if input[0] > 18.500000000000004 {
		if input[0] > 389.50000000000006 {
			if input[0] > 703.5000000000001 {
				if input[0] > 1900.0000000000002 {
					var10 = 2754.4408243815105
				} else {
					if input[0] > 752.5000000000001 {
						if input[5] > 9.500000000000002 {
							if input[3] > 7.500000000000001 {
								var10 = 2016.2336051432294
							} else {
								var10 = 822.103453793733
							}
						} else {
							if input[4] > 5.500000000000001 {
								var10 = 1258.3774729602742
							} else {
								if input[0] > 1375.5000000000002 {
									var10 = -46.72998254394531
								} else {
									var10 = 774.5923406648399
								}
							}
						}
					} else {
						if input[4] > 3.5000000000000004 {
							var10 = 1750.1906768263432
						} else {
							var10 = 804.8400841452859
						}
					}
				}
			} else {
				if input[4] > 2.5000000000000004 {
					if input[2] > 4.500000000000001 {
						var10 = 492.77771529692876
					} else {
						if input[5] > 3.5000000000000004 {
							if input[0] > 618.5000000000001 {
								var10 = 1612.2581241183811
							} else {
								var10 = 867.0271651233702
							}
						} else {
							var10 = 480.97858079274494
						}
					}
				} else {
					var10 = 178.21711323772632
				}
			}
		} else {
			if input[0] > 218.50000000000003 {
				if input[4] > 3.5000000000000004 {
					var10 = 321.06324116427726
				} else {
					if input[5] > 3.5000000000000004 {
						var10 = 299.12685689424217
					} else {
						var10 = -40.58243787765503
					}
				}
			} else {
				if input[0] > 76.50000000000001 {
					if input[0] > 80.50000000000001 {
						if input[0] > 124.50000000000001 {
							var10 = -161.93537270491794
						} else {
							var10 = -287.46151666256185
						}
					} else {
						if input[5] > 0.000000000000000000000000000000000010000000180025095 {
							if input[3] > 1.5000000000000002 {
								if input[1] > 0.000000000000000000000000000000000010000000180025095 {
									var10 = -448.65172605436993
								} else {
									if input[0] > 79.50000000000001 {
										if input[3] > 2.5000000000000004 {
											var10 = -228.42010743188075
										} else {
											if input[4] > 0.000000000000000000000000000000000010000000180025095 {
												if input[5] > 1.5000000000000002 {
													var10 = -1051.035235927416
												} else {
													var10 = 3921.8572965251865
												}
											} else {
												var10 = -364.63873719911317
											}
										}
									} else {
										var10 = -262.0807328849003
									}
								}
							} else {
								var10 = -386.58304722942887
							}
						} else {
							var10 = -398.76857459896905
						}
					}
				} else {
					var10 = -351.5862278499531
				}
			}
		}
	} else {
		if input[1] > 2.5000000000000004 {
			var10 = -38905.72924107143
		} else {
			if input[0] > 15.500000000000002 {
				var10 = 159120.9351851852
			} else {
				if input[3] > 0.000000000000000000000000000000000010000000180025095 {
					var10 = 3221.4245914853855
				} else {
					var10 = -1055.065861328125
				}
			}
		}
	}
	var var11 float32
	if input[0] > 18.500000000000004 {
		if input[0] > 254.50000000000003 {
			if input[0] > 601.5000000000001 {
				if input[0] > 2600.0000000000005 {
					var11 = 2860.3393139648438
				} else {
					if input[3] > 0.000000000000000000000000000000000010000000180025095 {
						if input[2] > 9.500000000000002 {
							var11 = 1777.2201033882475
						} else {
							if input[1] > 0.000000000000000000000000000000000010000000180025095 {
								if input[5] > 4.500000000000001 {
									var11 = 1786.6081054687502
								} else {
									var11 = 837.5538675161508
								}
							} else {
								var11 = 774.1790097742273
							}
						}
					} else {
						var11 = -69.10491286057693
					}
				}
			} else {
				if input[4] > 2.5000000000000004 {
					if input[0] > 456.00000000000006 {
						if input[0] > 471.50000000000006 {
							var11 = 515.782931815134
						} else {
							var11 = 1181.6105779474433
						}
					} else {
						if input[2] > 5.500000000000001 {
							var11 = -353.3201271057129
						} else {
							if input[0] > 449.50000000000006 {
								var11 = -401.0848789760045
							} else {
								if input[5] > 1.5000000000000002 {
									if input[0] > 381.50000000000006 {
										var11 = 604.7476031199996
									} else {
										var11 = 301.76109525383066
									}
								} else {
									var11 = -27.311750083745917
								}
							}
						}
					}
				} else {
					if input[3] > 4.500000000000001 {
						var11 = 259.06981615812884
					} else {
						var11 = -33.57704290275518
					}
				}
			}
		} else {
			if input[4] > 0.000000000000000000000000000000000010000000180025095 {
				if input[4] > 1.5000000000000002 {
					if input[5] > 2.5000000000000004 {
						var11 = 129.30002092661593
					} else {
						var11 = -124.89202495633161
					}
				} else {
					if input[0] > 76.50000000000001 {
						if input[0] > 80.50000000000001 {
							if input[2] > 1.5000000000000002 {
								var11 = -227.61150180725826
							} else {
								var11 = 247.87699976679107
							}
						} else {
							if input[1] > 0.000000000000000000000000000000000010000000180025095 {
								var11 = -465.2517412414551
							} else {
								if input[2] > 2.5000000000000004 {
									var11 = -455.523248503929
								} else {
									if input[0] > 79.50000000000001 {
										if input[3] > 1.5000000000000002 {
											if input[3] > 2.5000000000000004 {
												var11 = -224.98024359809028
											} else {
												var11 = 2583.3221324025853
											}
										} else {
											var11 = -828.6161770121257
										}
									} else {
										var11 = -202.52393791384816
									}
								}
							}
						}
					} else {
						var11 = -279.0626643032001
					}
				}
			} else {
				var11 = -311.2989199776039
			}
		}
	} else {
		if input[2] > 0.000000000000000000000000000000000010000000180025095 {
			if input[0] > 15.500000000000002 {
				var11 = 107576.6106617647
			} else {
				if input[0] > 10.500000000000002 {
					var11 = 6189.6098039215685
				} else {
					var11 = 4818.409469743208
				}
			}
		} else {
			var11 = -34046.12315866571
		}
	}
	var var12 float32
	if input[0] > 18.500000000000004 {
		if input[0] > 285.50000000000006 {
			if input[0] > 693.5000000000001 {
				if input[0] > 2600.0000000000005 {
					var12 = 2574.305456542969
				} else {
					if input[3] > 6.500000000000001 {
						if input[5] > 1.5000000000000002 {
							var12 = 1026.6081372825192
						} else {
							var12 = 185.55404866536458
						}
					} else {
						if input[0] > 1143.0000000000002 {
							if input[2] > 4.500000000000001 {
								var12 = 670.0726702008928
							} else {
								var12 = 1603.6936273484005
							}
						} else {
							if input[0] > 983.5000000000001 {
								var12 = -359.1696509225028
							} else {
								if input[4] > 3.5000000000000004 {
									if input[5] > 4.500000000000001 {
										var12 = 267.85984375
									} else {
										var12 = 1104.3155600807884
									}
								} else {
									var12 = -11.85332539876302
								}
							}
						}
					}
				}
			} else {
				if input[4] > 3.5000000000000004 {
					if input[2] > 4.500000000000001 {
						var12 = 326.9406557000202
					} else {
						if input[0] > 565.5000000000001 {
							if input[5] > 4.500000000000001 {
								var12 = 1650.78803515625
							} else {
								var12 = 650.5274933510639
							}
						} else {
							var12 = 449.08756148239667
						}
					}
				} else {
					if input[5] > 3.5000000000000004 {
						if input[2] > 4.500000000000001 {
							if input[0] > 476.00000000000006 {
								var12 = 611.7478656005859
							} else {
								var12 = -125.2158689226423
							}
						} else {
							if input[5] > 5.500000000000001 {
								var12 = 92.41727241847826
							} else {
								if input[3] > 2.5000000000000004 {
									var12 = 762.356425745347
								} else {
									var12 = -37.5004150390625
								}
							}
						}
					} else {
						if input[1] > 12.500000000000002 {
							var12 = 726.1262993706598
						} else {
							if input[0] > 500.50000000000006 {
								if input[4] > 0.000000000000000000000000000000000010000000180025095 {
									var12 = 588.5877051024004
								} else {
									var12 = -46.06487073396382
								}
							} else {
								var12 = -36.93539294732658
							}
						}
					}
				}
			}
		} else {
			if input[0] > 133.50000000000003 {
				if input[4] > 1.5000000000000002 {
					if input[5] > 2.5000000000000004 {
						var12 = 121.00042295937438
					} else {
						var12 = -57.11173156098946
					}
				} else {
					var12 = -146.662136738943
				}
			} else {
				if input[0] > 66.50000000000001 {
					var12 = -206.91408709108052
				} else {
					var12 = -301.0289025590609
				}
			}
		}
	} else {
		if input[1] > 2.5000000000000004 {
			var12 = -37988.42674107143
		} else {
			if input[0] > 15.500000000000002 {
				var12 = 134549.28148148148
			} else {
				if input[0] > 10.500000000000002 {
					var12 = 3251.1065723652746
				} else {
					var12 = 1306.9024126838237
				}
			}
		}
	}
	var var13 float32
	if input[0] > 18.500000000000004 {
		if input[0] > 389.50000000000006 {
			if input[0] > 1557.0000000000002 {
				if input[4] > 1.5000000000000002 {
					var13 = 458.59779157366074
				} else {
					var13 = 3515.086905184659
				}
			} else {
				if input[4] > 3.5000000000000004 {
					if input[0] > 693.5000000000001 {
						if input[0] > 752.5000000000001 {
							if input[0] > 870.0000000000001 {
								if input[5] > 9.500000000000002 {
									var13 = 1736.6635288783484
								} else {
									if input[0] > 983.5000000000001 {
										if input[5] > 4.500000000000001 {
											var13 = 1092.0132771542198
										} else {
											var13 = 173.87080570050142
										}
									} else {
										var13 = 1054.35216154505
									}
								}
							} else {
								if input[5] > 4.500000000000001 {
									var13 = -572.6566487630208
								} else {
									var13 = 923.8927642822266
								}
							}
						} else {
							if input[0] > 703.5000000000001 {
								var13 = 1389.599365234375
							} else {
								var13 = 623.1084601377829
							}
						}
					} else {
						if input[1] > 5.500000000000001 {
							var13 = 932.4829554748536
						} else {
							var13 = 409.0122789817282
						}
					}
				} else {
					if input[5] > 2.5000000000000004 {
						if input[0] > 476.00000000000006 {
							var13 = 496.4333936564128
						} else {
							if input[0] > 406.00000000000006 {
								var13 = 17.845032647939828
							} else {
								var13 = 577.5942138671875
							}
						}
					} else {
						if input[3] > 0.000000000000000000000000000000000010000000180025095 {
							if input[0] > 703.5000000000001 {
								var13 = 1244.4998254394532
							} else {
								var13 = 65.69346324320372
							}
						} else {
							if input[0] > 618.5000000000001 {
								var13 = -866.8854010009766
							} else {
								var13 = 117.18143532492898
							}
						}
					}
				}
			}
		} else {
			if input[0] > 196.50000000000003 {
				if input[4] > 3.5000000000000004 {
					if input[2] > 5.500000000000001 {
						var13 = -393.03586402306195
					} else {
						var13 = 255.608669333055
					}
				} else {
					if input[1] > 4.500000000000001 {
						if input[5] > 2.5000000000000004 {
							var13 = 704.1443392695213
						} else {
							var13 = 51.068439696764166
						}
					} else {
						var13 = -52.32885931020657
					}
				}
			} else {
				if input[5] > 0.000000000000000000000000000000000010000000180025095 {
					if input[4] > 0.000000000000000000000000000000000010000000180025095 {
						var13 = -139.18319086634918
					} else {
						var13 = -226.8226869657379
					}
				} else {
					var13 = -273.7539304602498
				}
			}
		}
	} else {
		if input[1] > 2.5000000000000004 {
			var13 = -34189.5846875
		} else {
			if input[0] > 15.500000000000002 {
				var13 = 121094.35416666669
			} else {
				if input[0] > 10.500000000000002 {
					var13 = 2925.996211336097
				} else {
					var13 = 1176.2122099034927
				}
			}
		}
	}
	var var14 float32
	if input[0] > 18.500000000000004 {
		if input[0] > 254.50000000000003 {
			if input[0] > 601.5000000000001 {
				if input[0] > 1900.0000000000002 {
					var14 = 1816.4146777343751
				} else {
					if input[2] > 0.000000000000000000000000000000000010000000180025095 {
						if input[2] > 4.500000000000001 {
							if input[4] > 4.500000000000001 {
								if input[5] > 9.500000000000002 {
									var14 = 1523.6783455158102
								} else {
									if input[5] > 5.500000000000001 {
										var14 = -6.1957148696437025
									} else {
										var14 = 673.912451671617
									}
								}
							} else {
								if input[3] > 6.500000000000001 {
									var14 = 508.6917974508034
								} else {
									var14 = -320.7944016166355
								}
							}
						} else {
							var14 = 845.7298752674083
						}
					} else {
						var14 = -29.451741681780135
					}
				}
			} else {
				if input[4] > 2.5000000000000004 {
					if input[0] > 381.50000000000006 {
						var14 = 382.0046627552051
					} else {
						var14 = 176.13924914360047
					}
				} else {
					if input[3] > 5.500000000000001 {
						var14 = 350.95439491271975
					} else {
						if input[1] > 12.500000000000002 {
							var14 = 695.589654806386
						} else {
							var14 = -29.247384509807684
						}
					}
				}
			}
		} else {
			if input[0] > 76.50000000000001 {
				if input[0] > 80.50000000000001 {
					if input[4] > 1.5000000000000002 {
						var14 = -35.451271070676746
					} else {
						if input[0] > 98.50000000000001 {
							if input[2] > 1.5000000000000002 {
								var14 = -153.05294868342978
							} else {
								var14 = 199.80286076577863
							}
						} else {
							var14 = -238.96555321998082
						}
					}
				} else {
					if input[5] > 0.000000000000000000000000000000000010000000180025095 {
						if input[3] > 1.5000000000000002 {
							if input[1] > 0.000000000000000000000000000000000010000000180025095 {
								var14 = -329.97940311586956
							} else {
								if input[0] > 79.50000000000001 {
									if input[2] > 2.5000000000000004 {
										var14 = -437.9371813456218
									} else {
										if input[5] > 1.5000000000000002 {
											var14 = -1098.5874855735085
										} else {
											if input[4] > 0.000000000000000000000000000000000010000000180025095 {
												if input[3] > 2.5000000000000004 {
													var14 = -256.5015341481855
												} else {
													var14 = 4524.7740162037035
												}
											} else {
												var14 = -255.6537723425663
											}
										}
									}
								} else {
									var14 = -173.5926230200406
								}
							}
						} else {
							var14 = -269.262016668199
						}
					} else {
						if input[4] > 0.000000000000000000000000000000000010000000180025095 {
							var14 = -703.7120950971331
						} else {
							var14 = -169.7917926220184
						}
					}
				}
			} else {
				var14 = -234.47178994678143
			}
		}
	} else {
		if input[2] > 0.000000000000000000000000000000000010000000180025095 {
			if input[0] > 15.500000000000002 {
				var14 = 81860.57316176471
			} else {
				var14 = 6481.63630270762
			}
		} else {
			var14 = -32257.1029219778
		}
	}
	var var15 float32
	if input[0] > 18.500000000000004 {
		if input[0] > 381.50000000000006 {
			if input[0] > 1557.0000000000002 {
				if input[4] > 1.5000000000000002 {
					var15 = 293.85680106026786
				} else {
					var15 = 3010.6057173295458
				}
			} else {
				if input[4] > 3.5000000000000004 {
					if input[0] > 703.5000000000001 {
						if input[0] > 752.5000000000001 {
							if input[0] > 870.0000000000001 {
								if input[3] > 7.500000000000001 {
									if input[3] > 11.500000000000002 {
										var15 = 130.49587508491848
									} else {
										var15 = 1182.7428762335528
									}
								} else {
									if input[0] > 998.5000000000001 {
										var15 = 144.54650156121505
									} else {
										var15 = 808.1610622282951
									}
								}
							} else {
								if input[5] > 4.500000000000001 {
									var15 = -570.9172054036459
								} else {
									var15 = 758.701693725586
								}
							}
						} else {
							var15 = 1174.7848872669956
						}
					} else {
						if input[3] > 7.500000000000001 {
							if input[0] > 500.50000000000006 {
								var15 = -112.10423686660339
							} else {
								if input[0] > 464.50000000000006 {
									var15 = 910.751572672526
								} else {
									var15 = -117.41061928488992
								}
							}
						} else {
							if input[1] > 5.500000000000001 {
								var15 = 1139.492897216797
							} else {
								if input[5] > 2.5000000000000004 {
									var15 = 345.101796219823
								} else {
									var15 = 875.1656378921198
								}
							}
						}
					}
				} else {
					var15 = 193.21287426130482
				}
			}
		} else {
			if input[0] > 145.50000000000003 {
				if input[5] > 2.5000000000000004 {
					if input[2] > 4.500000000000001 {
						var15 = -267.352400154903
					} else {
						if input[3] > 5.500000000000001 {
							var15 = 351.1096070568258
						} else {
							if input[0] > 347.50000000000006 {
								var15 = -309.3574844575264
							} else {
								if input[4] > 1.5000000000000002 {
									var15 = 187.01104912757876
								} else {
									var15 = -75.2771242414202
								}
							}
						}
					}
				} else {
					if input[3] > 7.500000000000001 {
						var15 = 687.4397314453125
					} else {
						if input[0] > 350.50000000000006 {
							if input[0] > 361.00000000000006 {
								var15 = -177.2560528094952
							} else {
								var15 = 560.4378051757812
							}
						} else {
							var15 = -84.87621445827898
						}
					}
				}
			} else {
				if input[5] > 0.000000000000000000000000000000000010000000180025095 {
					var15 = -147.25294435952821
				} else {
					var15 = -225.5039080646399
				}
			}
		}
	} else {
		if input[1] > 2.5000000000000004 {
			var15 = -33013.0678125
		} else {
			if input[0] > 15.500000000000002 {
				var15 = 102489.48981481482
			} else {
				if input[2] > 0.000000000000000000000000000000000010000000180025095 {
					var15 = 1058.1734095982144
				} else {
					var15 = 5798.808579282408
				}
			}
		}
	}
	var var16 float32
	if input[0] > 18.500000000000004 {
		if input[0] > 254.50000000000003 {
			if input[0] > 601.5000000000001 {
				if input[0] > 1557.0000000000002 {
					if input[4] > 1.5000000000000002 {
						var16 = 264.4711439732143
					} else {
						var16 = 2709.54501509233
					}
				} else {
					if input[3] > 0.000000000000000000000000000000000010000000180025095 {
						if input[2] > 4.500000000000001 {
							if input[4] > 4.500000000000001 {
								if input[5] > 9.500000000000002 {
									var16 = 1314.467286376953
								} else {
									if input[5] > 3.5000000000000004 {
										if input[0] > 903.5000000000001 {
											if input[5] > 4.500000000000001 {
												var16 = 1139.7041173598345
											} else {
												var16 = 288.33630797557345
											}
										} else {
											if input[5] > 4.500000000000001 {
												var16 = -408.27953355577256
											} else {
												if input[0] > 724.5000000000001 {
													var16 = 845.7370921947339
												} else {
													var16 = -54.15543107657598
												}
											}
										}
									} else {
										if input[0] > 956.0000000000001 {
											var16 = 135.8574439639137
										} else {
											var16 = 922.222605267693
										}
									}
								}
							} else {
								if input[0] > 983.5000000000001 {
									var16 = -465.514306640625
								} else {
									if input[0] > 703.5000000000001 {
										var16 = 807.7285047743056
									} else {
										var16 = -138.42631123860676
									}
								}
							}
						} else {
							if input[5] > 3.5000000000000004 {
								var16 = 859.743839956665
							} else {
								var16 = 406.031169128418
							}
						}
					} else {
						var16 = -374.90760358174646
					}
				}
			} else {
				if input[4] > 2.5000000000000004 {
					if input[0] > 456.00000000000006 {
						if input[0] > 471.50000000000006 {
							var16 = 306.4535149018194
						} else {
							var16 = 886.7061819365531
						}
					} else {
						if input[0] > 449.50000000000006 {
							var16 = -445.33447614397323
						} else {
							if input[2] > 5.500000000000001 {
								var16 = -332.9698150634766
							} else {
								if input[5] > 1.5000000000000002 {
									var16 = 249.05021708739292
								} else {
									var16 = -73.88574754581894
								}
							}
						}
					}
				} else {
					if input[3] > 5.500000000000001 {
						var16 = 290.9860441536739
					} else {
						if input[1] > 12.500000000000002 {
							var16 = 618.8785312486732
						} else {
							var16 = -30.935392538047424
						}
					}
				}
			}
		} else {
			if input[3] > 1.5000000000000002 {
				if input[4] > 1.5000000000000002 {
					var16 = -27.399919442836968
				} else {
					var16 = -124.54828183400662
				}
			} else {
				var16 = -194.66472978855336
			}
		}
	} else {
		if input[2] > 0.000000000000000000000000000000000010000000180025095 {
			if input[0] > 15.500000000000002 {
				var16 = 67809.48933823529
			} else {
				var16 = 6521.094854987157
			}
		} else {
			var16 = -29914.114052220393
		}
	}
	var var17 float32
	if input[0] > 18.500000000000004 {
		if input[0] > 381.50000000000006 {
			if input[0] > 1557.0000000000002 {
				if input[4] > 1.5000000000000002 {
					var17 = 238.02399553571428
				} else {
					var17 = 2438.590616122159
				}
			} else {
				if input[0] > 693.5000000000001 {
					if input[1] > 0.000000000000000000000000000000000010000000180025095 {
						if input[5] > 4.500000000000001 {
							var17 = 1581.8708841959635
						} else {
							var17 = 471.6512910600143
						}
					} else {
						if input[0] > 1375.5000000000002 {
							var17 = -384.0445694633152
						} else {
							var17 = 436.89969976034513
						}
					}
				} else {
					if input[3] > 2.5000000000000004 {
						if input[5] > 3.5000000000000004 {
							if input[3] > 3.5000000000000004 {
								if input[2] > 4.500000000000001 {
									if input[0] > 491.00000000000006 {
										if input[0] > 541.5000000000001 {
											var17 = 74.95537664794922
										} else {
											var17 = -637.4333829012785
										}
									} else {
										var17 = 318.13962896546326
									}
								} else {
									if input[5] > 5.500000000000001 {
										var17 = -149.44856575207834
									} else {
										if input[0] > 618.5000000000001 {
											var17 = 1588.995457763672
										} else {
											if input[0] > 589.5000000000001 {
												var17 = -368.6175406319755
											} else {
												if input[0] > 551.0000000000001 {
													var17 = 1705.4739020937968
												} else {
													if input[0] > 482.50000000000006 {
														var17 = 173.12511578184186
													} else {
														var17 = 890.9086273375011
													}
												}
											}
										}
									}
								}
							} else {
								var17 = 1201.6748896846066
							}
						} else {
							var17 = 163.41362201114035
						}
					} else {
						var17 = -122.59825285323944
					}
				}
			}
		} else {
			if input[0] > 145.50000000000003 {
				if input[5] > 2.5000000000000004 {
					if input[2] > 4.500000000000001 {
						var17 = -243.6721457645811
					} else {
						if input[0] > 347.50000000000006 {
							var17 = -169.43173820163895
						} else {
							if input[0] > 330.50000000000006 {
								var17 = 625.3580178096377
							} else {
								var17 = 130.67115376418997
							}
						}
					}
				} else {
					if input[3] > 7.500000000000001 {
						var17 = 604.5203930664063
					} else {
						var17 = -57.829161022307794
					}
				}
			} else {
				if input[0] > 66.50000000000001 {
					var17 = -117.37251031015995
				} else {
					var17 = -184.94206553612977
				}
			}
		}
	} else {
		if input[1] > 9.500000000000002 {
			var17 = -42127.888625
		} else {
			if input[0] > 15.500000000000002 {
				var17 = 70773.25458333333
			} else {
				if input[2] > 0.000000000000000000000000000000000010000000180025095 {
					if input[0] > 10.500000000000002 {
						var17 = 2458.0698219476744
					} else {
						var17 = 4148.323828125001
					}
				} else {
					var17 = 8210.339062500001
				}
			}
		}
	}
	var var18 float32
	if input[0] > 18.500000000000004 {
		if input[0] > 456.00000000000006 {
			if input[0] > 1557.0000000000002 {
				if input[4] > 1.5000000000000002 {
					var18 = 214.22162527901787
				} else {
					var18 = 2194.7316539417616
				}
			} else {
				if input[2] > 3.5000000000000004 {
					if input[2] > 4.500000000000001 {
						var18 = 289.61811748279564
					} else {
						if input[5] > 3.5000000000000004 {
							if input[0] > 565.5000000000001 {
								if input[5] > 5.500000000000001 {
									if input[0] > 703.5000000000001 {
										var18 = 734.8407379150391
									} else {
										var18 = -245.3599812825521
									}
								} else {
									if input[0] > 596.5000000000001 {
										if input[0] > 618.5000000000001 {
											var18 = 896.7534319315872
										} else {
											var18 = 171.827133283944
										}
									} else {
										var18 = 1441.0323158595875
									}
								}
							} else {
								var18 = 301.2846956942944
							}
						} else {
							var18 = 213.83889587342162
						}
					}
				} else {
					if input[3] > 1.5000000000000002 {
						var18 = -476.053802409925
					} else {
						var18 = 206.2843333973604
					}
				}
			}
		} else {
			if input[0] > 196.50000000000003 {
				if input[4] > 3.5000000000000004 {
					if input[2] > 5.500000000000001 {
						var18 = -359.9082229614258
					} else {
						var18 = 185.38842891491055
					}
				} else {
					if input[1] > 12.500000000000002 {
						var18 = 397.1850276155292
					} else {
						if input[5] > 3.5000000000000004 {
							var18 = 156.3841765469068
						} else {
							var18 = -35.62880780338325
						}
					}
				}
			} else {
				if input[5] > 0.000000000000000000000000000000000010000000180025095 {
					if input[4] > 0.000000000000000000000000000000000010000000180025095 {
						if input[2] > 2.5000000000000004 {
							var18 = -110.98902331518748
						} else {
							if input[0] > 79.50000000000001 {
								if input[0] > 80.50000000000001 {
									if input[2] > 1.5000000000000002 {
										var18 = -102.17753600012475
									} else {
										var18 = 323.61829552283655
									}
								} else {
									if input[1] > 4.500000000000001 {
										var18 = -813.7041014727424
									} else {
										if input[5] > 1.5000000000000002 {
											var18 = -679.5283003050706
										} else {
											if input[3] > 2.5000000000000004 {
												var18 = -195.0678241360572
											} else {
												var18 = 2887.1848052536234
											}
										}
									}
								}
							} else {
								var18 = -107.33500853149616
							}
						}
					} else {
						var18 = -136.4136539942304
					}
				} else {
					var18 = -168.8641546357701
				}
			}
		}
	} else {
		if input[2] > 0.000000000000000000000000000000000010000000180025095 {
			if input[1] > 3.5000000000000004 {
				var18 = -24571.549338942306
			} else {
				if input[0] > 15.500000000000002 {
					var18 = 129990.54130434783
				} else {
					var18 = 827.8876852101293
				}
			}
		} else {
			var18 = -28069.22699424342
		}
	}
	var var19 float32
	if input[0] > 18.500000000000004 {
		if input[0] > 254.50000000000003 {
			if input[0] > 456.00000000000006 {
				if input[0] > 1557.0000000000002 {
					if input[4] > 1.5000000000000002 {
						var19 = 192.79947265625003
					} else {
						var19 = 1975.2585099653763
					}
				} else {
					if input[2] > 3.5000000000000004 {
						if input[2] > 4.500000000000001 {
							if input[3] > 8.500000000000002 {
								if input[3] > 11.500000000000002 {
									var19 = 56.04389544231137
								} else {
									if input[0] > 803.5000000000001 {
										var19 = 903.8736785888673
									} else {
										var19 = 321.8922009277344
									}
								}
							} else {
								if input[5] > 7.500000000000001 {
									var19 = 634.7348052153716
								} else {
									if input[0] > 1105.0000000000002 {
										var19 = -372.57137767650465
									} else {
										var19 = 209.53301308665957
									}
								}
							}
						} else {
							if input[5] > 3.5000000000000004 {
								if input[0] > 565.5000000000001 {
									if input[5] > 5.500000000000001 {
										if input[0] > 703.5000000000001 {
											var19 = 661.3566779059333
										} else {
											var19 = -220.82396937779018
										}
									} else {
										if input[0] > 596.5000000000001 {
											if input[0] > 618.5000000000001 {
												var19 = 807.0780960710082
											} else {
												var19 = 154.64441507273708
											}
										} else {
											var19 = 1296.9290831192682
										}
									}
								} else {
									var19 = 271.15621501841446
								}
							} else {
								var19 = 192.45501383068495
							}
						}
					} else {
						if input[3] > 1.5000000000000002 {
							var19 = -428.448405456543
						} else {
							var19 = 185.6558770273246
						}
					}
				}
			} else {
				if input[1] > 4.500000000000001 {
					if input[5] > 2.5000000000000004 {
						if input[1] > 10.500000000000002 {
							var19 = 274.1137871375451
						} else {
							var19 = 852.4569292853862
						}
					} else {
						var19 = 84.07073214394705
					}
				} else {
					if input[4] > 2.5000000000000004 {
						if input[0] > 449.50000000000006 {
							var19 = -437.7689488002232
						} else {
							var19 = 128.73099178164512
						}
					} else {
						var19 = -42.19906036557943
					}
				}
			}
		} else {
			if input[3] > 1.5000000000000002 {
				if input[4] > 1.5000000000000002 {
					var19 = -12.928859510390097
				} else {
					var19 = -90.78083448683233
				}
			} else {
				var19 = -144.78298406842993
			}
		}
	} else {
		if input[2] > 0.000000000000000000000000000000000010000000180025095 {
			if input[1] > 9.500000000000002 {
				var19 = -30321.7590625
			} else {
				if input[0] > 15.500000000000002 {
					var19 = 107841.64661458333
				} else {
					if input[0] > 10.500000000000002 {
						var19 = 2247.6112009447675
					} else {
						var19 = 4031.6942578125004
					}
				}
			}
		} else {
			var19 = -25262.304481907897
		}
	}
	var var20 float32
	if input[0] > 18.500000000000004 {
		if input[0] > 320.50000000000006 {
			if input[0] > 703.5000000000001 {
				if input[3] > 1.5000000000000002 {
					if input[2] > 9.500000000000002 {
						var20 = 1082.139488817298
					} else {
						if input[0] > 1322.0000000000002 {
							if input[4] > 4.500000000000001 {
								var20 = 217.0013104413007
							} else {
								var20 = -937.0725026448569
							}
						} else {
							var20 = 423.30842759874133
						}
					}
				} else {
					if input[0] > 1692.5000000000002 {
						var20 = 1619.4338720703126
					} else {
						var20 = 248.7975497159091
					}
				}
			} else {
				if input[1] > 4.500000000000001 {
					if input[5] > 2.5000000000000004 {
						if input[1] > 13.500000000000002 {
							var20 = 432.99956665039065
						} else {
							var20 = 1291.7540041968937
						}
					} else {
						var20 = 92.97896128687366
					}
				} else {
					if input[1] > 2.5000000000000004 {
						if input[4] > 4.500000000000001 {
							var20 = 187.95564925249886
						} else {
							var20 = -430.90839247848055
						}
					} else {
						if input[4] > 2.5000000000000004 {
							if input[3] > 7.500000000000001 {
								if input[0] > 500.50000000000006 {
									var20 = -218.12703877110636
								} else {
									var20 = 353.7801445632685
								}
							} else {
								if input[0] > 530.5000000000001 {
									var20 = 447.7155133305764
								} else {
									var20 = 186.87299862354996
								}
							}
						} else {
							if input[3] > 4.500000000000001 {
								if input[4] > 0.000000000000000000000000000000000010000000180025095 {
									var20 = 84.83198391699023
								} else {
									var20 = 590.9551041886614
								}
							} else {
								if input[5] > 4.500000000000001 {
									var20 = 428.5038806152344
								} else {
									if input[0] > 574.0000000000001 {
										if input[0] > 618.5000000000001 {
											var20 = -261.44022471110026
										} else {
											var20 = 504.1092956542969
										}
									} else {
										var20 = -189.25818114682852
									}
								}
							}
						}
					}
				}
			}
		} else {
			if input[0] > 124.50000000000001 {
				if input[5] > 2.5000000000000004 {
					if input[2] > 4.500000000000001 {
						var20 = -277.9955522434686
					} else {
						var20 = 96.43230233122082
					}
				} else {
					if input[3] > 7.500000000000001 {
						var20 = 533.5296240234375
					} else {
						var20 = -52.814490394892175
					}
				}
			} else {
				if input[5] > 0.000000000000000000000000000000000010000000180025095 {
					var20 = -88.89185725535134
				} else {
					var20 = -140.83403538241114
				}
			}
		}
	} else {
		if input[1] > 2.5000000000000004 {
			var20 = -24990.845446428575
		} else {
			if input[0] > 15.500000000000002 {
				var20 = 60360.339814814826
			} else {
				if input[2] > 0.000000000000000000000000000000000010000000180025095 {
					var20 = -346.17349330357143
				} else {
					var20 = 12722.458333333334
				}
			}
		}
	}
	var var21 float32
	if input[0] > 15.500000000000002 {
		if input[3] > 0.000000000000000000000000000000000010000000180025095 {
			if input[0] > 18.500000000000004 {
				if input[0] > 254.50000000000003 {
					if input[0] > 456.00000000000006 {
						if input[5] > 10.500000000000002 {
							var21 = -731.3606398809525
						} else {
							if input[2] > 9.500000000000002 {
								var21 = 1402.3400658017115
							} else {
								if input[5] > 7.500000000000001 {
									if input[0] > 998.5000000000001 {
										var21 = 930.245763811384
									} else {
										var21 = 166.59525571076767
									}
								} else {
									if input[0] > 1375.5000000000002 {
										var21 = -315.42496448863636
									} else {
										if input[0] > 703.5000000000001 {
											if input[4] > 2.5000000000000004 {
												if input[0] > 752.5000000000001 {
													if input[5] > 2.5000000000000004 {
														if input[0] > 870.0000000000001 {
															if input[0] > 983.5000000000001 {
																if input[5] > 4.500000000000001 {
																	var21 = 845.9568626767114
																} else {
																	var21 = 48.37571365921586
																}
															} else {
																if input[0] > 903.5000000000001 {
																	var21 = 1208.36552734375
																} else {
																	var21 = 386.63746236165366
																}
															}
														} else {
															if input[5] > 4.500000000000001 {
																var21 = -640.3924179687501
															} else {
																var21 = 284.00069961547854
															}
														}
													} else {
														var21 = -475.1739306640625
													}
												} else {
													var21 = 657.1483516808712
												}
											} else {
												var21 = 1270.7100362548829
											}
										} else {
											if input[2] > 3.5000000000000004 {
												var21 = 212.79379909532437
											} else {
												var21 = -349.21418380737305
											}
										}
									}
								}
							}
						}
					} else {
						if input[0] > 449.50000000000006 {
							var21 = -310.57041909354075
						} else {
							if input[4] > 2.5000000000000004 {
								if input[5] > 1.5000000000000002 {
									var21 = 154.950299042407
								} else {
									if input[0] > 313.50000000000006 {
										var21 = 140.0445902298908
									} else {
										var21 = -403.01799444154256
									}
								}
							} else {
								var21 = -5.5690060555622845
							}
						}
					}
				} else {
					if input[4] > 0.000000000000000000000000000000000010000000180025095 {
						var21 = -56.46384812210277
					} else {
						var21 = -115.42271136834853
					}
				}
			} else {
				var21 = 23378.32568597561
			}
		} else {
			if input[0] > 89.50000000000001 {
				if input[0] > 1692.5000000000002 {
					var21 = 1457.4906396484375
				} else {
					if input[0] > 618.5000000000001 {
						var21 = -843.5056951904297
					} else {
						var21 = 273.2904907226563
					}
				}
			} else {
				var21 = -41909.17786499023
			}
		}
	} else {
		if input[1] > 0.000000000000000000000000000000000010000000180025095 {
			var21 = 29824.41466796875
		} else {
			if input[2] > 0.000000000000000000000000000000000010000000180025095 {
				var21 = -389.86961647727276
			} else {
				var21 = 10995.200125000001
			}
		}
	}
	var var22 float32
	if input[0] > 15.500000000000002 {
		if input[3] > 0.000000000000000000000000000000000010000000180025095 {
			if input[0] > 18.500000000000004 {
				if input[0] > 381.50000000000006 {
					if input[5] > 10.500000000000002 {
						var22 = -584.6211871603261
					} else {
						if input[2] > 9.500000000000002 {
							var22 = 1184.4261252663352
						} else {
							if input[0] > 541.5000000000001 {
								if input[3] > 3.5000000000000004 {
									var22 = 226.81220412491734
								} else {
									var22 = 634.9375016837284
								}
							} else {
								if input[4] > 1.5000000000000002 {
									var22 = 155.275899639755
								} else {
									var22 = -131.69903084891183
								}
							}
						}
					}
				} else {
					if input[0] > 124.50000000000001 {
						if input[2] > 1.5000000000000002 {
							if input[4] > 3.5000000000000004 {
								if input[0] > 290.50000000000006 {
									if input[0] > 340.50000000000006 {
										if input[5] > 2.5000000000000004 {
											var22 = -124.31113715114364
										} else {
											var22 = 363.06249872843426
										}
									} else {
										if input[2] > 4.500000000000001 {
											var22 = -343.010986328125
										} else {
											if input[5] > 3.5000000000000004 {
												var22 = 786.3101616753473
											} else {
												var22 = 310.8493164617365
											}
										}
									}
								} else {
									var22 = -0.7003904285997448
								}
							} else {
								if input[0] > 361.00000000000006 {
									var22 = -313.38838089243575
								} else {
									if input[0] > 350.50000000000006 {
										var22 = 385.01125221946023
									} else {
										if input[3] > 5.500000000000001 {
											if input[0] > 299.50000000000006 {
												var22 = 459.57540138373946
											} else {
												var22 = 19.297582336425783
											}
										} else {
											if input[0] > 295.50000000000006 {
												var22 = -193.32503580182993
											} else {
												if input[3] > 2.5000000000000004 {
													var22 = -1.768729023211411
												} else {
													var22 = -83.64668123874678
												}
											}
										}
									}
								}
							}
						} else {
							if input[0] > 134.50000000000003 {
								var22 = 83.80440079972551
							} else {
								var22 = 740.8228182705966
							}
						}
					} else {
						if input[0] > 34.50000000000001 {
							var22 = -83.51634717172084
						} else {
							var22 = -161.03254167579746
						}
					}
				}
			} else {
				var22 = 21040.488871951224
			}
		} else {
			if input[0] > 89.50000000000001 {
				if input[0] > 1692.5000000000002 {
					var22 = 1311.7416809082033
				} else {
					if input[0] > 618.5000000000001 {
						var22 = -759.1551330566407
					} else {
						var22 = 245.96142196655273
					}
				}
			} else {
				var22 = -37718.261074218746
			}
		}
	} else {
		if input[1] > 0.000000000000000000000000000000000010000000180025095 {
			var22 = 26841.97244140625
		} else {
			if input[2] > 0.000000000000000000000000000000000010000000180025095 {
				var22 = -350.8828267045455
			} else {
				var22 = 9895.68
			}
		}
	}
	var var23 float32
	if input[0] > 15.500000000000002 {
		if input[2] > 0.000000000000000000000000000000000010000000180025095 {
			if input[0] > 18.500000000000004 {
				if input[0] > 456.00000000000006 {
					if input[5] > 10.500000000000002 {
						var23 = -599.7624035063244
					} else {
						if input[2] > 9.500000000000002 {
							var23 = 1143.663427734375
						} else {
							if input[3] > 1.5000000000000002 {
								if input[2] > 3.5000000000000004 {
									if input[5] > 7.500000000000001 {
										if input[0] > 998.5000000000001 {
											var23 = 814.53994140625
										} else {
											var23 = 123.48625116762908
										}
									} else {
										if input[0] > 1322.0000000000002 {
											var23 = -252.78347761824327
										} else {
											if input[2] > 4.500000000000001 {
												if input[5] > 3.5000000000000004 {
													var23 = 43.81242436878717
												} else {
													if input[3] > 5.500000000000001 {
														if input[0] > 618.5000000000001 {
															if input[4] > 5.500000000000001 {
																var23 = 1258.744705078125
															} else {
																var23 = 303.29942922123143
															}
														} else {
															if input[4] > 5.500000000000001 {
																var23 = -283.84408489724865
															} else {
																var23 = 329.90901227678575
															}
														}
													} else {
														var23 = -70.5624082212095
													}
												}
											} else {
												if input[3] > 3.5000000000000004 {
													if input[0] > 693.5000000000001 {
														var23 = 549.7199925622275
													} else {
														var23 = 212.6069283970067
													}
												} else {
													var23 = 817.2403096516928
												}
											}
										}
									}
								} else {
									var23 = -399.05317598230704
								}
							} else {
								var23 = 840.9828638458252
							}
						}
					}
				} else {
					if input[0] > 196.50000000000003 {
						if input[1] > 4.500000000000001 {
							if input[5] > 3.5000000000000004 {
								var23 = 775.7171483820135
							} else {
								var23 = 128.77987031398968
							}
						} else {
							if input[1] > 1.5000000000000002 {
								var23 = -196.24458896543922
							} else {
								var23 = 20.767270043600465
							}
						}
					} else {
						if input[0] > 34.50000000000001 {
							var23 = -63.57297117684703
						} else {
							var23 = -144.77577979753343
						}
					}
				}
			} else {
				var23 = 34836.22647058823
			}
		} else {
			if input[0] > 20.500000000000004 {
				if input[3] > 0.000000000000000000000000000000000010000000180025095 {
					var23 = -148.17380107491317
				} else {
					if input[0] > 574.0000000000001 {
						if input[0] > 1692.5000000000002 {
							var23 = 1180.5674182128907
						} else {
							var23 = -167.83925292968752
						}
					} else {
						var23 = 2250.0758882068453
					}
				}
			} else {
				var23 = -38728.91808589812
			}
		}
	} else {
		if input[1] > 0.000000000000000000000000000000000010000000180025095 {
			var23 = 24157.77515625
		} else {
			if input[2] > 0.000000000000000000000000000000000010000000180025095 {
				var23 = -315.7945738636364
			} else {
				var23 = 8906.111875
			}
		}
	}
	var var24 float32
	if input[0] > 15.500000000000002 {
		if input[3] > 0.000000000000000000000000000000000010000000180025095 {
			if input[0] > 18.500000000000004 {
				if input[0] > 254.50000000000003 {
					if input[0] > 456.00000000000006 {
						if input[5] > 10.500000000000002 {
							var24 = -539.7862141927084
						} else {
							if input[2] > 9.500000000000002 {
								var24 = 1029.2970982142858
							} else {
								if input[5] > 7.500000000000001 {
									var24 = 486.45128418494915
								} else {
									if input[0] > 1375.5000000000002 {
										var24 = -284.1090775923296
									} else {
										var24 = 181.67934857011446
									}
								}
							}
						}
					} else {
						var24 = 40.632437421455705
					}
				} else {
					if input[0] > 20.500000000000004 {
						if input[0] > 76.50000000000001 {
							if input[0] > 80.50000000000001 {
								if input[0] > 98.50000000000001 {
									if input[2] > 1.5000000000000002 {
										if input[4] > 1.5000000000000002 {
											if input[2] > 4.500000000000001 {
												var24 = -388.4923155088683
											} else {
												var24 = 27.186235535004172
											}
										} else {
											var24 = -55.6780202988173
										}
									} else {
										var24 = 227.2261358196816
									}
								} else {
									var24 = -115.03080073259699
								}
							} else {
								if input[5] > 0.000000000000000000000000000000000010000000180025095 {
									if input[3] > 1.5000000000000002 {
										if input[1] > 0.000000000000000000000000000000000010000000180025095 {
											var24 = -192.01079836589534
										} else {
											if input[0] > 79.50000000000001 {
												if input[2] > 2.5000000000000004 {
													var24 = -309.3135874112447
												} else {
													if input[5] > 1.5000000000000002 {
														var24 = -846.7177590110085
													} else {
														if input[4] > 0.000000000000000000000000000000000010000000180025095 {
															if input[3] > 2.5000000000000004 {
																var24 = -139.7498102003528
															} else {
																var24 = 3860.8179976851857
															}
														} else {
															var24 = -133.31117884318036
														}
													}
												}
											} else {
												var24 = -68.02954408053694
											}
										}
									} else {
										var24 = -162.41870542006404
									}
								} else {
									if input[4] > 0.000000000000000000000000000000000010000000180025095 {
										var24 = -522.6489696775164
									} else {
										var24 = -38.47285088877524
									}
								}
							}
						} else {
							var24 = -89.11738351338869
						}
					} else {
						var24 = 457.8382606708898
					}
				}
			} else {
				var24 = 16708.808841463415
			}
		} else {
			if input[0] > 89.50000000000001 {
				if input[0] > 1692.5000000000002 {
					var24 = 1062.5106494140625
				} else {
					if input[0] > 618.5000000000001 {
						var24 = -676.5439074707032
					} else {
						var24 = 122.38960571289063
					}
				}
			} else {
				var24 = -32849.5255078125
			}
		}
	} else {
		if input[1] > 0.000000000000000000000000000000000010000000180025095 {
			var24 = 21741.997304687502
		} else {
			if input[2] > 0.000000000000000000000000000000000010000000180025095 {
				var24 = -284.2146235795455
			} else {
				var24 = 8015.5009375
			}
		}
	}
	var var25 float32
	if input[0] > 15.500000000000002 {
		if input[2] > 0.000000000000000000000000000000000010000000180025095 {
			if input[0] > 18.500000000000004 {
				if input[0] > 381.50000000000006 {
					if input[5] > 10.500000000000002 {
						var25 = -422.6472380264946
					} else {
						if input[0] > 1352.5000000000002 {
							if input[4] > 4.500000000000001 {
								var25 = 1078.626586216518
							} else {
								var25 = 89.44924400592673
							}
						} else {
							if input[3] > 2.5000000000000004 {
								if input[2] > 6.500000000000001 {
									var25 = -171.538330078125
								} else {
									if input[0] > 703.5000000000001 {
										if input[4] > 5.500000000000001 {
											var25 = 786.0740328275241
										} else {
											var25 = 225.3239928029963
										}
									} else {
										if input[5] > 4.500000000000001 {
											if input[5] > 5.500000000000001 {
												var25 = 61.51592813491822
											} else {
												if input[3] > 6.500000000000001 {
													var25 = 255.39172068375808
												} else {
													var25 = 1014.7140689849854
												}
											}
										} else {
											var25 = 97.45290160408176
										}
									}
								}
							} else {
								var25 = -280.493208943473
							}
						}
					}
				} else {
					if input[4] > 1.5000000000000002 {
						if input[2] > 4.500000000000001 {
							var25 = -199.77637976284686
						} else {
							if input[3] > 6.500000000000001 {
								var25 = 411.9661924663343
							} else {
								if input[5] > 2.5000000000000004 {
									if input[0] > 347.50000000000006 {
										var25 = -228.30031251371577
									} else {
										if input[0] > 285.50000000000006 {
											if input[5] > 3.5000000000000004 {
												var25 = 593.1377178117341
											} else {
												var25 = 177.83773381600975
											}
										} else {
											var25 = 64.90852413724531
										}
									}
								} else {
									var25 = -23.52456850704089
								}
							}
						}
					} else {
						if input[0] > 34.50000000000001 {
							if input[3] > 4.500000000000001 {
								if input[0] > 263.50000000000006 {
									var25 = 513.9055488586426
								} else {
									var25 = 23.476206288439162
								}
							} else {
								var25 = -52.07448057632729
							}
						} else {
							var25 = -126.05919502141666
						}
					}
				}
			} else {
				var25 = 29681.73051470588
			}
		} else {
			if input[0] > 20.500000000000004 {
				if input[3] > 0.000000000000000000000000000000000010000000180025095 {
					var25 = -126.26262355050642
				} else {
					if input[0] > 574.0000000000001 {
						if input[0] > 1692.5000000000002 {
							var25 = 956.2597729492187
						} else {
							var25 = -115.35826660156249
						}
					} else {
						var25 = 2954.883993675596
					}
				}
			} else {
				var25 = -34624.1087953629
			}
		}
	} else {
		if input[1] > 0.000000000000000000000000000000000010000000180025095 {
			var25 = 19567.7983203125
		} else {
			if input[2] > 0.000000000000000000000000000000000010000000180025095 {
				var25 = -255.79375710227274
			} else {
				var25 = 7213.950843750001
			}
		}
	}
	var var26 float32
	if input[0] > 15.500000000000002 {
		if input[3] > 0.000000000000000000000000000000000010000000180025095 {
			if input[0] > 18.500000000000004 {
				if input[0] > 20.500000000000004 {
					if input[0] > 254.50000000000003 {
						if input[0] > 703.5000000000001 {
							if input[3] > 4.500000000000001 {
								if input[1] > 0.000000000000000000000000000000000010000000180025095 {
									if input[5] > 4.500000000000001 {
										var26 = 1123.2598999023437
									} else {
										if input[0] > 998.5000000000001 {
											var26 = -308.1335424804688
										} else {
											var26 = 578.3951608385358
										}
									}
								} else {
									if input[3] > 6.500000000000001 {
										if input[0] > 752.5000000000001 {
											if input[0] > 870.0000000000001 {
												if input[4] > 6.500000000000001 {
													var26 = -230.37021231815734
												} else {
													if input[4] > 4.500000000000001 {
														if input[5] > 4.500000000000001 {
															var26 = 992.8870406539353
														} else {
															if input[0] > 998.5000000000001 {
																var26 = -31.87289962768555
															} else {
																var26 = 664.9295447716346
															}
														}
													} else {
														var26 = 5.4504391232052365
													}
												}
											} else {
												var26 = -521.98726675851
											}
										} else {
											var26 = 609.6416852678572
										}
									} else {
										if input[4] > 4.500000000000001 {
											var26 = 383.91281947544644
										} else {
											var26 = -681.7973682585217
										}
									}
								}
							} else {
								var26 = 842.2609785970052
							}
						} else {
							if input[1] > 4.500000000000001 {
								if input[5] > 3.5000000000000004 {
									var26 = 686.0452247032753
								} else {
									var26 = 131.522901119403
								}
							} else {
								if input[1] > 2.5000000000000004 {
									var26 = -183.75658421670238
								} else {
									if input[4] > 2.5000000000000004 {
										if input[2] > 4.500000000000001 {
											var26 = 19.073342493440368
										} else {
											if input[1] > 1.5000000000000002 {
												var26 = 776.3327375604994
											} else {
												if input[5] > 1.5000000000000002 {
													var26 = 187.5300462210844
												} else {
													var26 = -128.00612599140888
												}
											}
										}
									} else {
										var26 = -23.205674249930844
									}
								}
							}
						}
					} else {
						if input[0] > 66.50000000000001 {
							var26 = -35.93037099181026
						} else {
							var26 = -79.78337371912929
						}
					}
				} else {
					var26 = 974.1867858346585
				}
			} else {
				var26 = 13167.674847560977
			}
		} else {
			if input[0] > 89.50000000000001 {
				if input[0] > 1692.5000000000002 {
					var26 = 860.6334033203126
				} else {
					var26 = -243.46039381760818
				}
			} else {
				var26 = -28612.413281250003
			}
		}
	} else {
		if input[1] > 0.000000000000000000000000000000000010000000180025095 {
			var26 = 17611.018242187503
		} else {
			if input[2] > 0.000000000000000000000000000000000010000000180025095 {
				var26 = -230.21387073863636
			} else {
				var26 = 6492.5556875
			}
		}
	}
	var var27 float32
	if input[0] > 15.500000000000002 {
		if input[2] > 0.000000000000000000000000000000000010000000180025095 {
			if input[0] > 18.500000000000004 {
				if input[0] > 456.00000000000006 {
					if input[5] > 10.500000000000002 {
						var27 = -457.83421282087056
					} else {
						if input[2] > 9.500000000000002 {
							var27 = 915.3093052455357
						} else {
							if input[3] > 1.5000000000000002 {
								if input[2] > 3.5000000000000004 {
									if input[3] > 3.5000000000000004 {
										if input[1] > 5.500000000000001 {
											var27 = 488.6477811373197
										} else {
											if input[0] > 1322.0000000000002 {
												if input[4] > 4.500000000000001 {
													var27 = 329.8963176858836
												} else {
													var27 = -864.1380888439361
												}
											} else {
												if input[0] > 903.5000000000001 {
													if input[0] > 983.5000000000001 {
														if input[5] > 4.500000000000001 {
															var27 = 611.3788946854442
														} else {
															var27 = -73.82706195537861
														}
													} else {
														var27 = 876.832120028409
													}
												} else {
													if input[5] > 6.500000000000001 {
														var27 = -226.27333050163426
													} else {
														var27 = 124.45954487783405
													}
												}
											}
										}
									} else {
										var27 = 505.49437103271487
									}
								} else {
									var27 = -379.9549775965074
								}
							} else {
								var27 = 747.6971060180664
							}
						}
					}
				} else {
					if input[3] > 4.500000000000001 {
						var27 = 46.99986690178379
					} else {
						if input[0] > 34.50000000000001 {
							if input[2] > 1.5000000000000002 {
								if input[3] > 1.5000000000000002 {
									if input[4] > 3.5000000000000004 {
										var27 = 182.8091667624081
									} else {
										var27 = -31.966395540893558
									}
								} else {
									var27 = -77.85462581722035
								}
							} else {
								if input[5] > 0.000000000000000000000000000000000010000000180025095 {
									if input[1] > 3.5000000000000004 {
										if input[1] > 5.500000000000001 {
											var27 = 114.30731113302298
										} else {
											var27 = 1044.5291557617188
										}
									} else {
										var27 = 64.80701546172875
									}
								} else {
									var27 = -45.6953928090632
								}
							}
						} else {
							var27 = -114.47918107989881
						}
					}
				}
			} else {
				var27 = 25396.793382352942
			}
		} else {
			if input[0] > 20.500000000000004 {
				if input[3] > 0.000000000000000000000000000000000010000000180025095 {
					var27 = -108.24258527013356
				} else {
					if input[0] > 574.0000000000001 {
						if input[0] > 1692.5000000000002 {
							var27 = 774.57017578125
						} else {
							var27 = -79.47639078776042
						}
					} else {
						var27 = 3494.283203125
					}
				}
			} else {
				var27 = -30961.80977822581
			}
		}
	} else {
		if input[1] > 0.000000000000000000000000000000000010000000180025095 {
			var27 = 15849.91666015625
		} else {
			if input[2] > 0.000000000000000000000000000000000010000000180025095 {
				var27 = -207.19254971590908
			} else {
				var27 = 5843.300078125
			}
		}
	}
	var var28 float32
	if input[0] > 15.500000000000002 {
		if input[3] > 0.000000000000000000000000000000000010000000180025095 {
			if input[0] > 18.500000000000004 {
				if input[0] > 20.500000000000004 {
					if input[0] > 220.50000000000003 {
						if input[0] > 693.5000000000001 {
							if input[4] > 0.000000000000000000000000000000000010000000180025095 {
								if input[5] > 1.5000000000000002 {
									if input[3] > 6.500000000000001 {
										if input[0] > 1557.0000000000002 {
											var28 = -315.0424306696112
										} else {
											if input[5] > 9.500000000000002 {
												var28 = 927.8101040926848
											} else {
												if input[5] > 3.5000000000000004 {
													if input[2] > 4.500000000000001 {
														if input[0] > 1004.0000000000001 {
															var28 = 317.63889490076014
														} else {
															if input[3] > 7.500000000000001 {
																if input[3] > 8.500000000000002 {
																	var28 = 71.00283435639881
																} else {
																	var28 = -731.4801604094329
																}
															} else {
																var28 = 134.91008864182695
															}
														}
													} else {
														var28 = 546.5240183304767
													}
												} else {
													var28 = 552.9207287016369
												}
											}
										}
									} else {
										if input[4] > 4.500000000000001 {
											if input[0] > 784.0000000000001 {
												var28 = 647.9970442708334
											} else {
												var28 = -201.77202613467261
											}
										} else {
											if input[0] > 870.0000000000001 {
												var28 = -555.7038026646205
											} else {
												if input[5] > 3.5000000000000004 {
													var28 = 481.25725569291546
												} else {
													var28 = -363.9752306256976
												}
											}
										}
									}
								} else {
									var28 = -474.076210715554
								}
							} else {
								var28 = 777.077510892428
							}
						} else {
							if input[1] > 4.500000000000001 {
								if input[1] > 6.500000000000001 {
									var28 = 110.62017673967355
								} else {
									var28 = 604.5633685076679
								}
							} else {
								if input[1] > 2.5000000000000004 {
									if input[3] > 7.500000000000001 {
										var28 = 266.6444181002104
									} else {
										var28 = -280.64777033131594
									}
								} else {
									if input[3] > 2.5000000000000004 {
										if input[4] > 0.000000000000000000000000000000000010000000180025095 {
											var28 = 42.9245525674047
										} else {
											var28 = 274.4860702078683
										}
									} else {
										var28 = -137.4387092183431
									}
								}
							}
						}
					} else {
						var28 = -44.32662711270738
					}
				} else {
					var28 = 1379.5894715975874
				}
			} else {
				var28 = 10273.428506097562
			}
		} else {
			if input[0] > 89.50000000000001 {
				if input[0] > 1692.5000000000002 {
					var28 = 697.1132324218751
				} else {
					var28 = -317.45295574481673
				}
			} else {
				var28 = -24926.653828125
			}
		}
	} else {
		if input[1] > 0.000000000000000000000000000000000010000000180025095 {
			var28 = 14264.924833984376
		} else {
			if input[2] > 0.000000000000000000000000000000000010000000180025095 {
				var28 = -186.473359375
			} else {
				var28 = 5258.97015625
			}
		}
	}
	var var29 float32
	if input[2] > 0.000000000000000000000000000000000010000000180025095 {
		if input[0] > 18.500000000000004 {
			if input[0] > 381.50000000000006 {
				if input[2] > 1.5000000000000002 {
					if input[3] > 2.5000000000000004 {
						if input[5] > 10.500000000000002 {
							var29 = -429.10969360351567
						} else {
							if input[2] > 9.500000000000002 {
								var29 = 718.8216042258523
							} else {
								if input[2] > 6.500000000000001 {
									var29 = -172.9952721058239
								} else {
									if input[5] > 7.500000000000001 {
										if input[0] > 998.5000000000001 {
											var29 = 793.8732740832913
										} else {
											var29 = 4.872376417077106
										}
									} else {
										if input[0] > 1375.5000000000002 {
											var29 = -499.3160028872283
										} else {
											if input[5] > 6.500000000000001 {
												var29 = -219.6591538783482
											} else {
												if input[5] > 4.500000000000001 {
													var29 = 245.2413361299955
												} else {
													var29 = 99.09687771852413
												}
											}
										}
									}
								}
							}
						}
					} else {
						var29 = -262.23701969691683
					}
				} else {
					var29 = 651.8691545758929
				}
			} else {
				if input[0] > 20.500000000000004 {
					if input[0] > 361.00000000000006 {
						var29 = -239.33330343495246
					} else {
						if input[2] > 3.5000000000000004 {
							if input[0] > 290.50000000000006 {
								if input[2] > 4.500000000000001 {
									if input[0] > 333.50000000000006 {
										var29 = 150.87341698179853
									} else {
										var29 = -301.5481569686026
									}
								} else {
									if input[0] > 295.50000000000006 {
										var29 = 145.5505120171441
									} else {
										if input[1] > 4.500000000000001 {
											var29 = 208.63305125517005
										} else {
											var29 = 807.2667942810059
										}
									}
								}
							} else {
								var29 = -6.657430115172052
							}
						} else {
							if input[0] > 292.50000000000006 {
								var29 = -189.10060486028226
							} else {
								if input[0] > 263.50000000000006 {
									var29 = 308.598998194565
								} else {
									var29 = -32.001966016450794
								}
							}
						}
					}
				} else {
					var29 = -417.6391812294408
				}
			}
		} else {
			if input[1] > 3.5000000000000004 {
				var29 = -34943.04930889423
			} else {
				if input[0] > 15.500000000000002 {
					var29 = 82722.94130434783
				} else {
					var29 = -80.38205818965518
				}
			}
		}
	} else {
		if input[0] > 18.500000000000004 {
			if input[0] > 20.500000000000004 {
				if input[3] > 0.000000000000000000000000000000000010000000180025095 {
					var29 = -95.98702125777743
				} else {
					if input[0] > 574.0000000000001 {
						if input[0] > 1692.5000000000002 {
							var29 = 627.4019091796876
						} else {
							var29 = -39.783450520833334
						}
					} else {
						var29 = 3879.720145089286
					}
				}
			} else {
				var29 = 11680.997343750001
			}
		} else {
			var29 = -25619.539092696345
		}
	}
	var var30 float32
	if input[0] > 15.500000000000002 {
		if input[0] > 18.500000000000004 {
			if input[3] > 0.000000000000000000000000000000000010000000180025095 {
				if input[0] > 20.500000000000004 {
					if input[4] > 3.5000000000000004 {
						if input[4] > 7.500000000000001 {
							var30 = -354.869671875
						} else {
							if input[5] > 9.500000000000002 {
								var30 = 665.2427006441004
							} else {
								if input[1] > 17.500000000000004 {
									var30 = 492.22501775568185
								} else {
									if input[2] > 6.500000000000001 {
										var30 = -314.41364577720907
									} else {
										if input[0] > 998.5000000000001 {
											if input[4] > 4.500000000000001 {
												var30 = 70.02899028079611
											} else {
												var30 = -595.5066945043103
											}
										} else {
											var30 = 99.26611039657763
										}
									}
								}
							}
						}
					} else {
						if input[0] > 1322.0000000000002 {
							var30 = 639.1743121603262
						} else {
							if input[0] > 76.50000000000001 {
								if input[0] > 80.50000000000001 {
									if input[0] > 98.50000000000001 {
										if input[1] > 12.500000000000002 {
											var30 = 151.32792316243805
										} else {
											var30 = -15.395813755370533
										}
									} else {
										var30 = -83.09320129144629
									}
								} else {
									if input[5] > 0.000000000000000000000000000000000010000000180025095 {
										if input[3] > 1.5000000000000002 {
											if input[1] > 0.000000000000000000000000000000000010000000180025095 {
												var30 = -153.69038393594386
											} else {
												if input[0] > 79.50000000000001 {
													if input[2] > 2.5000000000000004 {
														if input[3] > 2.5000000000000004 {
															var30 = 79.59054323832194
														} else {
															var30 = -598.6414947509766
														}
													} else {
														if input[5] > 1.5000000000000002 {
															var30 = -744.254725230824
														} else {
															if input[4] > 0.000000000000000000000000000000000010000000180025095 {
																if input[3] > 2.5000000000000004 {
																	var30 = -107.06581441817747
																} else {
																	var30 = 3494.0080729166666
																}
															} else {
																var30 = -100.3500778429436
															}
														}
													}
												} else {
													var30 = -42.220125458980434
												}
											}
										} else {
											var30 = -123.48723276717755
										}
									} else {
										if input[4] > 0.000000000000000000000000000000000010000000180025095 {
											var30 = -449.393957901001
										} else {
											var30 = -12.706222626983479
										}
									}
								}
							} else {
								var30 = -55.193572539232406
							}
						}
					}
				} else {
					var30 = 1090.6728033825361
				}
			} else {
				if input[0] > 299.50000000000006 {
					if input[0] > 1692.5000000000002 {
						var30 = 564.6615380859375
					} else {
						var30 = -433.3460438829788
					}
				} else {
					var30 = 13115.285784621468
				}
			}
		} else {
			var30 = -10524.567916666667
		}
	} else {
		if input[1] > 0.000000000000000000000000000000000010000000180025095 {
			var30 = 15716.562187500002
		} else {
			if input[2] > 0.000000000000000000000000000000000010000000180025095 {
				var30 = -159.78801136363637
			} else {
				var30 = 7295.027281250001
			}
		}
	}
	var var31 float32
	if input[0] > 15.500000000000002 {
		if input[0] > 18.500000000000004 {
			if input[3] > 0.000000000000000000000000000000000010000000180025095 {
				if input[2] > 0.000000000000000000000000000000000010000000180025095 {
					if input[0] > 20.500000000000004 {
						if input[0] > 381.50000000000006 {
							if input[5] > 10.500000000000002 {
								var31 = -408.87677479619566
							} else {
								if input[0] > 1352.5000000000002 {
									if input[4] > 4.500000000000001 {
										var31 = 859.6873277064733
									} else {
										var31 = 95.09671715045798
									}
								} else {
									if input[3] > 2.5000000000000004 {
										if input[2] > 6.500000000000001 {
											if input[3] > 7.500000000000001 {
												var31 = -414.66299913194445
											} else {
												var31 = 159.6623488653274
											}
										} else {
											if input[0] > 401.50000000000006 {
												if input[0] > 430.50000000000006 {
													if input[4] > 1.5000000000000002 {
														var31 = 120.91152446729814
													} else {
														var31 = -97.86907341617278
													}
												} else {
													var31 = -113.98812222867399
												}
											} else {
												if input[2] > 3.5000000000000004 {
													var31 = 159.9495535492897
												} else {
													var31 = 666.3803488991477
												}
											}
										}
									} else {
										if input[0] > 449.50000000000006 {
											var31 = -494.99622050694063
										} else {
											var31 = -59.36958516438803
										}
									}
								}
							}
						} else {
							if input[3] > 1.5000000000000002 {
								if input[0] > 361.00000000000006 {
									var31 = -217.12919077997623
								} else {
									if input[0] > 350.50000000000006 {
										if input[5] > 2.5000000000000004 {
											var31 = -85.28453384168222
										} else {
											var31 = 396.22464577414775
										}
									} else {
										if input[5] > 3.5000000000000004 {
											if input[3] > 5.500000000000001 {
												var31 = 327.51653902030284
											} else {
												var31 = 2.2218345931813688
											}
										} else {
											if input[3] > 7.500000000000001 {
												var31 = 470.52195383707686
											} else {
												var31 = -18.440693224332243
											}
										}
									}
								}
							} else {
								var31 = -49.67381276341953
							}
						}
					} else {
						var31 = -484.9425421463816
					}
				} else {
					if input[0] > 22.500000000000004 {
						var31 = -80.05630300460324
					} else {
						var31 = 5194.6287497965495
					}
				}
			} else {
				if input[0] > 299.50000000000006 {
					if input[0] > 1692.5000000000002 {
						var31 = 508.1955810546875
					} else {
						if input[0] > 601.5000000000001 {
							var31 = -114.14364217122396
						} else {
							var31 = -677.8735033118207
						}
					}
				} else {
					var31 = 11803.757031250001
				}
			}
		} else {
			var31 = -9472.087222222222
		}
	} else {
